<?xml version="1.0"?>
<opencv_storage>
<cascade>
  <stageType>BOOST</stageType>
  <featureType>HAAR</featureType>
  <height>24</height>
  <width>24</width>
  <stageParams>
    <boostType>GAB</boostType>
    <minHitRate>9.9500000476837158e-01</minHitRate>
    <maxFalseAlarm>5.0000000000000000e-01</maxFalseAlarm>
    <weightTrimRate>9.4999999999999996e-01</weightTrimRate>
    <maxDepth>1</maxDepth>
    <maxWeakCount>100</maxWeakCount></stageParams>
  <featureParams>
    <maxCatCount>0</maxCatCount>
    <featSize>1</featSize>
    <mode>BASIC</mode></featureParams>
  <stageNum>20</stageNum>
  <stages>
    <!-- stage 0 -->
    <_>
      <maxWeakCount>6</maxWeakCount>
      <stageThreshold>-6.2987899780273438e-01</stageThreshold>
      <weakClassifiers>
        <_>
          <internalNodes>
            0 -1 127 5.8592684566974640e-02</internalNodes>
          <leafValues>
            -4.7252747416496277e-01 7.8807944059371948e-01</leafValues></_>
        <_>
          <internalNodes>
            0 -1 23 -2.5422737962799147e-05</internalNodes>
          <leafValues>
            -5.4029148817062378e-01 4.8376268148422241e-01</leafValues></_>
        <_>
          <internalNodes>
            0 -1 17 8.3117658505216241e-05</internalNodes>
          <leafValues>
            3.6803096532821655e-01 -6.4690613746643066e-01</leafValues></_>
        <_>
          <internalNodes>
            0 -1 89 2.8750649653375149e-04</internalNodes>
          <leafValues>
            -4.6766069531440735e-01 4.7235167026519775e-01</leafValues></_>
        <_>
          <internalNodes>
            0 -1 9 8.3459774032235146e-04</internalNodes>
          <leafValues>
            2.5177687406539917e-01 -8.8047176599502563e-01</leafValues></_>
        <_>
          <internalNodes>
            0 -1 174 -1.4341353380586952e-04</internalNodes>
          <leafValues>
            -6.7145913839340210e-01 3.0571755766868591e-01</leafValues></_></weakClassifiers></_>
    <!-- stage 1 -->
    <_>
      <maxWeakCount>6</maxWeakCount>
      <stageThreshold>-5.9906142950057983e-01</stageThreshold>
      <weakClassifiers>
        <_>
          <internalNodes>
            0 -1 53 -7.4809417128562927e-03</internalNodes>
          <leafValues>
            6.8000000715255737e-01 -5.4430377483367920e-01</leafValues></_>
        <_>
          <internalNodes>
            0 -1 94 2.4516452103853226e-03</internalNodes>
          <leafValues>
            -3.7833344936370850e-01 6.2002986669540405e-01</leafValues></_>
        <_>
          <internalNodes>
            0 -1 20 8.8685494847595692e-04</internalNodes>
          <leafValues>
            -3.2599437236785889e-01 6.8455982208251953e-01</leafValues></_>
        <_>
          <internalNodes>
            0 -1 158 -2.1505204495042562e-04</internalNodes>
          <leafValues>
            -9.2921680212020874e-01 2.4629102647304535e-01</leafValues></_>
        <_>
          <internalNodes>
            0 -1 118 8.9640924707055092e-03</internalNodes>
          <leafValues>
            -3.4667867422103882e-01 7.8080427646636963e-01</leafValues></_>
        <_>
          <internalNodes>
            0 -1 117 1.8064528703689575e-03</internalNodes>
          <leafValues>
            -2.4840548634529114e-01 8.1847918033599854e-01</leafValues></_></weakClassifiers></_>
    <!-- stage 2 -->
    <_>
      <maxWeakCount>8</maxWeakCount>
      <stageThreshold>-1.0546207427978516e+00</stageThreshold>
      <weakClassifiers>
        <_>
          <internalNodes>
            0 -1 134 -2.5920220650732517e-04</internalNodes>
          <leafValues>
            -7.4418604373931885e-01 3.9271256327629089e-01</leafValues></_>
        <_>
          <internalNodes>
            0 -1 173 2.5746261235326529e-04</internalNodes>
          <leafValues>
            3.0510577559471130e-01 -7.2037458419799805e-01</leafValues></_>
        <_>
          <internalNodes>
            0 -1 71 2.3711938410997391e-02</internalNodes>
          <leafValues>
            -3.2168948650360107e-01 7.3087626695632935e-01</leafValues></_>
        <_>
          <internalNodes>
            0 -1 13 -3.1757641409058124e-05</internalNodes>
          <leafValues>
            -6.3807809352874756e-01 3.9091718196868896e-01</leafValues></_>
        <_>
          <internalNodes>
            0 -1 51 1.3962740194983780e-04</internalNodes>
          <leafValues>
            3.0016076564788818e-01 -6.1568570137023926e-01</leafValues></_>
        <_>
          <internalNodes>
            0 -1 97 -1.6649838071316481e-03</internalNodes>
          <leafValues>
            4.6373370289802551e-01 -4.6570992469787598e-01</leafValues></_>
        <_>
          <internalNodes>
            0 -1 0 4.5101955038262531e-05</internalNodes>
          <leafValues>
            2.4532458186149597e-01 -8.0815494060516357e-01</leafValues></_>
        <_>
          <internalNodes>
            0 -1 162 -5.3186584409559146e-05</internalNodes>
          <leafValues>
            -6.9923019409179688e-01 2.4733956158161163e-01</leafValues></_></weakClassifiers></_>
    <!-- stage 3 -->
    <_>
      <maxWeakCount>10</maxWeakCount>
      <stageThreshold>-9.4629746675491333e-01</stageThreshold>
      <weakClassifiers>
        <_>
          <internalNodes>
            0 -1 19 6.6058259108103812e-05</internalNodes>
          <leafValues>
            3.3590734004974365e-01 -7.2972971200942993e-01</leafValues></_>
        <_>
          <internalNodes>
            0 -1 88 1.5319315716624260e-02</internalNodes>
          <leafValues>
            -4.4648197293281555e-01 3.6476531624794006e-01</leafValues></_>
        <_>
          <internalNodes>
            0 -1 25 1.7829665011959150e-05</internalNodes>
          <leafValues>
            3.8165563344955444e-01 -5.2663964033126831e-01</leafValues></_>
        <_>
          <internalNodes>
            0 -1 45 -4.9478553235530853e-02</internalNodes>
          <leafValues>
            8.1557077169418335e-01 -2.3338943719863892e-01</leafValues></_>
        <_>
          <internalNodes>
            0 -1 160 2.7564473566599190e-04</internalNodes>
          <leafValues>
            2.7035385370254517e-01 -6.5993642807006836e-01</leafValues></_>
        <_>
          <internalNodes>
            0 -1 67 1.7061126418411732e-03</internalNodes>
          <leafValues>
            -2.0645965635776520e-01 7.4977177381515503e-01</leafValues></_>
        <_>
          <internalNodes>
            0 -1 76 -7.6236322522163391e-02</internalNodes>
          <leafValues>
            7.8895592689514160e-01 -2.8143602609634399e-01</leafValues></_>
        <_>
          <internalNodes>
            0 -1 159 -1.5329988673329353e-04</internalNodes>
          <leafValues>
            -8.3849132061004639e-01 2.9119750857353210e-01</leafValues></_>
        <_>
          <internalNodes>
            0 -1 167 3.3253887668251991e-03</internalNodes>
          <leafValues>
            -2.6990413665771484e-01 8.5337990522384644e-01</leafValues></_>
        <_>
          <internalNodes>
            0 -1 34 4.2955880053341389e-03</internalNodes>
          <leafValues>
            -2.0374935865402222e-01 5.9633803367614746e-01</leafValues></_></weakClassifiers></_>
    <!-- stage 4 -->
    <_>
      <maxWeakCount>10</maxWeakCount>
      <stageThreshold>-5.0357431173324585e-01</stageThreshold>
      <weakClassifiers>
        <_>
          <internalNodes>
            0 -1 70 4.8691783100366592e-02</internalNodes>
          <leafValues>
            -2.3618090152740479e-01 5.9701490402221680e-01</leafValues></_>
        <_>
          <internalNodes>
            0 -1 14 1.0688920156098902e-04</internalNodes>
          <leafValues>
            2.4444675445556641e-01 -6.4877551794052124e-01</leafValues></_>
        <_>
          <internalNodes>
            0 -1 132 -7.6727166771888733e-02</internalNodes>
          <leafValues>
            6.3295060396194458e-01 -2.2683702409267426e-01</leafValues></_>
        <_>
          <internalNodes>
            0 -1 75 1.2202266603708267e-02</internalNodes>
          <leafValues>
            -1.9271883368492126e-01 7.4562782049179077e-01</leafValues></_>
        <_>
          <internalNodes>
            0 -1 168 -1.3933929039922077e-05</internalNodes>
          <leafValues>
            -6.8950700759887695e-01 2.1583741903305054e-01</leafValues></_>
        <_>
          <internalNodes>
            0 -1 86 -2.8029503300786018e-04</internalNodes>
          <leafValues>
            5.1579719781875610e-01 -3.2597595453262329e-01</leafValues></_>
        <_>
          <internalNodes>
            0 -1 124 -9.9758208307321183e-06</internalNodes>
          <leafValues>
            6.0898578166961670e-01 -2.6774471998214722e-01</leafValues></_>
        <_>
          <internalNodes>
            0 -1 5 -1.8724518304225057e-04</internalNodes>
          <leafValues>
            -8.6697471141815186e-01 1.5044917166233063e-01</leafValues></_>
        <_>
          <internalNodes>
            0 -1 82 -7.8480564057826996e-02</internalNodes>
          <leafValues>
            7.2727090120315552e-01 -2.4588018655776978e-01</leafValues></_>
        <_>
          <internalNodes>
            0 -1 125 -4.3350697524147108e-05</internalNodes>
          <leafValues>
            5.2172338962554932e-01 -2.8968465328216553e-01</leafValues></_></weakClassifiers></_>
    <!-- stage 5 -->
    <_>
      <maxWeakCount>8</maxWeakCount>
      <stageThreshold>-4.8648291826248169e-01</stageThreshold>
      <weakClassifiers>
        <_>
          <internalNodes>
            0 -1 172 -1.3828779628966004e-04</internalNodes>
          <leafValues>
            -6.4705884456634521e-01 3.5483869910240173e-01</leafValues></_>
        <_>
          <internalNodes>
            0 -1 171 3.8898240745766088e-05</internalNodes>
          <leafValues>
            3.9850959181785583e-01 -5.1194459199905396e-01</leafValues></_>
        <_>
          <internalNodes>
            0 -1 135 -1.1418978829169646e-05</internalNodes>
          <leafValues>
            -5.3086704015731812e-01 3.6788776516914368e-01</leafValues></_>
        <_>
          <internalNodes>
            0 -1 21 2.3760434240102768e-02</internalNodes>
          <leafValues>
            -2.3263645172119141e-01 8.8456159830093384e-01</leafValues></_>
        <_>
          <internalNodes>
            0 -1 137 8.9621245861053467e-03</internalNodes>
          <leafValues>
            -3.4066677093505859e-01 4.2776244878768921e-01</leafValues></_>
        <_>
          <internalNodes>
            0 -1 106 1.2714979238808155e-03</internalNodes>
          <leafValues>
            -2.6518279314041138e-01 6.2363964319229126e-01</leafValues></_>
        <_>
          <internalNodes>
            0 -1 102 -2.0388260483741760e-02</internalNodes>
          <leafValues>
            6.2397664785385132e-01 -2.8267717361450195e-01</leafValues></_>
        <_>
          <internalNodes>
            0 -1 54 1.9629802554845810e-03</internalNodes>
          <leafValues>
            -2.5308749079704285e-01 5.6171101331710815e-01</leafValues></_></weakClassifiers></_>
    <!-- stage 6 -->
    <_>
      <maxWeakCount>12</maxWeakCount>
      <stageThreshold>-9.4109970331192017e-01</stageThreshold>
      <weakClassifiers>
        <_>
          <internalNodes>
            0 -1 169 1.4640006702393293e-04</internalNodes>
          <leafValues>
            3.3333334326744080e-01 -5.9523808956146240e-01</leafValues></_>
        <_>
          <internalNodes>
            0 -1 129 7.4934381991624832e-03</internalNodes>
          <leafValues>
            -4.8986917734146118e-01 3.1717428565025330e-01</leafValues></_>
        <_>
          <internalNodes>
            0 -1 175 5.0715950783342123e-04</internalNodes>
          <leafValues>
            2.4003335833549500e-01 -7.0658576488494873e-01</leafValues></_>
        <_>
          <internalNodes>
            0 -1 43 -5.2303946577012539e-03</internalNodes>
          <leafValues>
            3.1856095790863037e-01 -4.5191743969917297e-01</leafValues></_>
        <_>
          <internalNodes>
            0 -1 136 -3.9775967597961426e-03</internalNodes>
          <leafValues>
            6.1212378740310669e-01 -2.6011204719543457e-01</leafValues></_>
        <_>
          <internalNodes>
            0 -1 121 5.1962384022772312e-03</internalNodes>
          <leafValues>
            -3.5436046123504639e-01 4.5172145962715149e-01</leafValues></_>
        <_>
          <internalNodes>
            0 -1 164 3.0166333090164699e-05</internalNodes>
          <leafValues>
            3.1707823276519775e-01 -4.7018465399742126e-01</leafValues></_>
        <_>
          <internalNodes>
            0 -1 81 5.9207202866673470e-03</internalNodes>
          <leafValues>
            -2.7004018425941467e-01 6.5446454286575317e-01</leafValues></_>
        <_>
          <internalNodes>
            0 -1 35 1.1947648599743843e-02</internalNodes>
          <leafValues>
            -2.5765544176101685e-01 5.3567641973495483e-01</leafValues></_>
        <_>
          <internalNodes>
            0 -1 38 1.0512249544262886e-02</internalNodes>
          <leafValues>
            -4.2184737324714661e-01 3.8497647643089294e-01</leafValues></_>
        <_>
          <internalNodes>
            0 -1 8 1.9650114700198174e-04</internalNodes>
          <leafValues>
            1.9091410934925079e-01 -9.0140122175216675e-01</leafValues></_>
        <_>
          <internalNodes>
            0 -1 87 3.1220905948430300e-03</internalNodes>
          <leafValues>
            -3.0998843908309937e-01 6.5939360857009888e-01</leafValues></_></weakClassifiers></_>
    <!-- stage 7 -->
    <_>
      <maxWeakCount>8</maxWeakCount>
      <stageThreshold>-5.9874755144119263e-01</stageThreshold>
      <weakClassifiers>
        <_>
          <internalNodes>
            0 -1 18 -8.3080112934112549e-02</internalNodes>
          <leafValues>
            4.9112427234649658e-01 -3.0487805604934692e-01</leafValues></_>
        <_>
          <internalNodes>
            0 -1 41 -7.6918026024941355e-05</internalNodes>
          <leafValues>
            -6.1934083700180054e-01 2.5867864489555359e-01</leafValues></_>
        <_>
          <internalNodes>
            0 -1 146 2.3094126954674721e-03</internalNodes>
          <leafValues>
            -1.7626151442527771e-01 7.7081757783889771e-01</leafValues></_>
        <_>
          <internalNodes>
            0 -1 107 -8.5644889622926712e-03</internalNodes>
          <leafValues>
            6.8771487474441528e-01 -2.2527669370174408e-01</leafValues></_>
        <_>
          <internalNodes>
            0 -1 170 1.6755647957324982e-02</internalNodes>
          <leafValues>
            2.3003351688385010e-01 -8.9694583415985107e-01</leafValues></_>
        <_>
          <internalNodes>
            0 -1 120 5.0114747136831284e-03</internalNodes>
          <leafValues>
            -2.9186332225799561e-01 6.2365019321441650e-01</leafValues></_>
        <_>
          <internalNodes>
            0 -1 152 -3.6761943192686886e-05</internalNodes>
          <leafValues>
            -5.2736318111419678e-01 3.3797416090965271e-01</leafValues></_>
        <_>
          <internalNodes>
            0 -1 80 4.0253042243421078e-04</internalNodes>
          <leafValues>
            -3.6908549070358276e-01 4.5086520910263062e-01</leafValues></_></weakClassifiers></_>
    <!-- stage 8 -->
    <_>
      <maxWeakCount>7</maxWeakCount>
      <stageThreshold>-4.4277361035346985e-01</stageThreshold>
      <weakClassifiers>
        <_>
          <internalNodes>
            0 -1 7 -7.4342831969261169e-02</internalNodes>
          <leafValues>
            5.0561797618865967e-01 -3.6774194240570068e-01</leafValues></_>
        <_>
          <internalNodes>
            0 -1 156 2.2678199457004666e-04</internalNodes>
          <leafValues>
            2.2357021272182465e-01 -7.2130942344665527e-01</leafValues></_>
        <_>
          <internalNodes>
            0 -1 154 6.1123271007090807e-04</internalNodes>
          <leafValues>
            -3.6952513456344604e-01 4.0865230560302734e-01</leafValues></_>
        <_>
          <internalNodes>
            0 -1 60 6.0213789343833923e-02</internalNodes>
          <leafValues>
            -2.1517156064510345e-01 9.1176223754882813e-01</leafValues></_>
        <_>
          <internalNodes>
            0 -1 138 4.4337948784232140e-03</internalNodes>
          <leafValues>
            -2.1928769350051880e-01 6.2171733379364014e-01</leafValues></_>
        <_>
          <internalNodes>
            0 -1 39 1.7702315235510468e-03</internalNodes>
          <leafValues>
            1.8534350395202637e-01 -8.9577931165695190e-01</leafValues></_>
        <_>
          <internalNodes>
            0 -1 92 -9.2014707624912262e-03</internalNodes>
          <leafValues>
            7.8426110744476318e-01 -2.1802063286304474e-01</leafValues></_></weakClassifiers></_>
    <!-- stage 9 -->
    <_>
      <maxWeakCount>11</maxWeakCount>
      <stageThreshold>-8.9538276195526123e-01</stageThreshold>
      <weakClassifiers>
        <_>
          <internalNodes>
            0 -1 141 5.4707612842321396e-02</internalNodes>
          <leafValues>
            -2.5133690237998962e-01 5.4794520139694214e-01</leafValues></_>
        <_>
          <internalNodes>
            0 -1 24 -3.0331193556776270e-05</internalNodes>
          <leafValues>
            -5.0009673833847046e-01 2.6520159840583801e-01</leafValues></_>
        <_>
          <internalNodes>
            0 -1 42 4.3139338493347168e-02</internalNodes>
          <leafValues>
            1.4737623929977417e-01 -7.2410595417022705e-01</leafValues></_>
        <_>
          <internalNodes>
            0 -1 11 2.4521126761101186e-05</internalNodes>
          <leafValues>
            1.7589427530765533e-01 -6.2252861261367798e-01</leafValues></_>
        <_>
          <internalNodes>
            0 -1 36 -7.1771228685975075e-03</internalNodes>
          <leafValues>
            9.2373943328857422e-01 -1.3268825411796570e-01</leafValues></_>
        <_>
          <internalNodes>
            0 -1 112 -5.0948932766914368e-03</internalNodes>
          <leafValues>
            4.3875387310981750e-01 -2.9695528745651245e-01</leafValues></_>
        <_>
          <internalNodes>
            0 -1 149 9.7899045795202255e-03</internalNodes>
          <leafValues>
            -1.9414587318897247e-01 7.0941096544265747e-01</leafValues></_>
        <_>
          <internalNodes>
            0 -1 119 -1.9940633792430162e-03</internalNodes>
          <leafValues>
            7.2387444972991943e-01 -1.9801145792007446e-01</leafValues></_>
        <_>
          <internalNodes>
            0 -1 126 9.6356568974442780e-05</internalNodes>
          <leafValues>
            2.9774403572082520e-01 -4.4137650728225708e-01</leafValues></_>
        <_>
          <internalNodes>
            0 -1 12 8.2995101809501648e-02</internalNodes>
          <leafValues>
            3.4209647774696350e-01 -4.5322409272193909e-01</leafValues></_>
        <_>
          <internalNodes>
            0 -1 73 2.5015026330947876e-02</internalNodes>
          <leafValues>
            -2.5523701310157776e-01 6.3717603683471680e-01</leafValues></_></weakClassifiers></_>
    <!-- stage 10 -->
    <_>
      <maxWeakCount>7</maxWeakCount>
      <stageThreshold>-6.3566881418228149e-01</stageThreshold>
      <weakClassifiers>
        <_>
          <internalNodes>
            0 -1 32 -9.7103968262672424e-02</internalNodes>
          <leafValues>
            -5.1923078298568726e-01 3.7991267442703247e-01</leafValues></_>
        <_>
          <internalNodes>
            0 -1 83 1.1714685708284378e-02</internalNodes>
          <leafValues>
            1.7181216180324554e-01 -8.0916428565979004e-01</leafValues></_>
        <_>
          <internalNodes>
            0 -1 63 1.5772484475746751e-03</internalNodes>
          <leafValues>
            -1.8656949698925018e-01 7.7324706315994263e-01</leafValues></_>
        <_>
          <internalNodes>
            0 -1 95 -4.9112213309854269e-04</internalNodes>
          <leafValues>
            -6.9181370735168457e-01 1.8823057413101196e-01</leafValues></_>
        <_>
          <internalNodes>
            0 -1 144 -1.6437355428934097e-02</internalNodes>
          <leafValues>
            7.2159016132354736e-01 -2.4219097197055817e-01</leafValues></_>
        <_>
          <internalNodes>
            0 -1 157 -5.0366448704153299e-05</internalNodes>
          <leafValues>
            -7.3450332880020142e-01 2.8502905368804932e-01</leafValues></_>
        <_>
          <internalNodes>
            0 -1 48 -4.0670726448297501e-03</internalNodes>
          <leafValues>
            4.5701903104782104e-01 -3.1555405259132385e-01</leafValues></_></weakClassifiers></_>
    <!-- stage 11 -->
    <_>
      <maxWeakCount>9</maxWeakCount>
      <stageThreshold>-1.0757442712783813e+00</stageThreshold>
      <weakClassifiers>
        <_>
          <internalNodes>
            0 -1 6 3.5714168916456401e-05</internalNodes>
          <leafValues>
            4.7422680258750916e-01 -4.2446044087409973e-01</leafValues></_>
        <_>
          <internalNodes>
            0 -1 161 -3.2275420380756259e-04</internalNodes>
          <leafValues>
            -7.4885505437850952e-01 1.8103064596652985e-01</leafValues></_>
        <_>
          <internalNodes>
            0 -1 10 -9.6415542066097260e-03</internalNodes>
          <leafValues>
            5.3756576776504517e-01 -3.1218513846397400e-01</leafValues></_>
        <_>
          <internalNodes>
            0 -1 98 1.6158660873770714e-02</internalNodes>
          <leafValues>
            -2.6223579049110413e-01 6.5465825796127319e-01</leafValues></_>
        <_>
          <internalNodes>
            0 -1 65 5.9964344836771488e-03</internalNodes>
          <leafValues>
            -3.6552298069000244e-01 4.7482377290725708e-01</leafValues></_>
        <_>
          <internalNodes>
            0 -1 108 -4.4753504917025566e-03</internalNodes>
          <leafValues>
            5.9068542718887329e-01 -1.9156360626220703e-01</leafValues></_>
        <_>
          <internalNodes>
            0 -1 22 4.4595017243409529e-05</internalNodes>
          <leafValues>
            3.0517065525054932e-01 -6.4791685342788696e-01</leafValues></_>
        <_>
          <internalNodes>
            0 -1 26 -1.4594802632927895e-03</internalNodes>
          <leafValues>
            -6.4663892984390259e-01 1.6426163911819458e-01</leafValues></_>
        <_>
          <internalNodes>
            0 -1 95 5.1039624959230423e-03</internalNodes>
          <leafValues>
            -2.3017120361328125e-01 6.5365290641784668e-01</leafValues></_></weakClassifiers></_>
    <!-- stage 12 -->
    <_>
      <maxWeakCount>9</maxWeakCount>
      <stageThreshold>-7.5235426425933838e-01</stageThreshold>
      <weakClassifiers>
        <_>
          <internalNodes>
            0 -1 1 3.4047898952849209e-04</internalNodes>
          <leafValues>
            2.8624534606933594e-01 -6.8750000000000000e-01</leafValues></_>
        <_>
          <internalNodes>
            0 -1 15 -4.2126839980483055e-03</internalNodes>
          <leafValues>
            3.0470609664916992e-01 -4.6540728211402893e-01</leafValues></_>
        <_>
          <internalNodes>
            0 -1 148 -5.6508660782128572e-04</internalNodes>
          <leafValues>
            6.8523240089416504e-01 -1.8143089115619659e-01</leafValues></_>
        <_>
          <internalNodes>
            0 -1 131 6.7146331071853638e-02</internalNodes>
          <leafValues>
            -2.6734679937362671e-01 5.2691185474395752e-01</leafValues></_>
        <_>
          <internalNodes>
            0 -1 103 -1.0992640629410744e-02</internalNodes>
          <leafValues>
            6.7374974489212036e-01 -1.9998106360435486e-01</leafValues></_>
        <_>
          <internalNodes>
            0 -1 139 1.2119381688535213e-02</internalNodes>
          <leafValues>
            2.1019899845123291e-01 -7.1346300840377808e-01</leafValues></_>
        <_>
          <internalNodes>
            0 -1 153 1.6423556953668594e-02</internalNodes>
          <leafValues>
            -1.5707375109195709e-01 9.2746198177337646e-01</leafValues></_>
        <_>
          <internalNodes>
            0 -1 72 5.4215124691836536e-05</internalNodes>
          <leafValues>
            3.3665308356285095e-01 -4.5049741864204407e-01</leafValues></_>
        <_>
          <internalNodes>
            0 -1 79 1.0638076812028885e-02</internalNodes>
          <leafValues>
            -2.9717478156089783e-01 5.0017625093460083e-01</leafValues></_></weakClassifiers></_>
    <!-- stage 13 -->
    <_>
      <maxWeakCount>11</maxWeakCount>
      <stageThreshold>-8.2258623838424683e-01</stageThreshold>
      <weakClassifiers>
        <_>
          <internalNodes>
            0 -1 4 -3.4711998701095581e-01</internalNodes>
          <leafValues>
            -7.4074071645736694e-01 2.6164874434471130e-01</leafValues></_>
        <_>
          <internalNodes>
            0 -1 122 3.5180919803678989e-04</internalNodes>
          <leafValues>
            -2.7036538720130920e-01 4.2544171214103699e-01</leafValues></_>
        <_>
          <internalNodes>
            0 -1 28 -3.8471017032861710e-02</internalNodes>
          <leafValues>
            3.7338894605636597e-01 -3.7738063931465149e-01</leafValues></_>
        <_>
          <internalNodes>
            0 -1 116 4.9862144805956632e-05</internalNodes>
          <leafValues>
            -3.1698027253150940e-01 4.6554550528526306e-01</leafValues></_>
        <_>
          <internalNodes>
            0 -1 143 -2.2482243366539478e-03</internalNodes>
          <leafValues>
            7.5058996677398682e-01 -1.7799651622772217e-01</leafValues></_>
        <_>
          <internalNodes>
            0 -1 16 1.0414391908852849e-05</internalNodes>
          <leafValues>
            2.0935359597206116e-01 -5.6867283582687378e-01</leafValues></_>
        <_>
          <internalNodes>
            0 -1 133 -4.6221434604376554e-04</internalNodes>
          <leafValues>
            5.2668637037277222e-01 -2.7640196681022644e-01</leafValues></_>
        <_>
          <internalNodes>
            0 -1 165 -1.2057674211973790e-05</internalNodes>
          <leafValues>
            -5.4657518863677979e-01 2.6403984427452087e-01</leafValues></_>
        <_>
          <internalNodes>
            0 -1 109 -2.2776398691348732e-04</internalNodes>
          <leafValues>
            4.3832340836524963e-01 -3.6580502986907959e-01</leafValues></_>
        <_>
          <internalNodes>
            0 -1 69 2.4076050613075495e-04</internalNodes>
          <leafValues>
            -3.0243009328842163e-01 4.0256309509277344e-01</leafValues></_>
        <_>
          <internalNodes>
            0 -1 68 1.8183419015258551e-03</internalNodes>
          <leafValues>
            -2.2103810310363770e-01 5.3496038913726807e-01</leafValues></_></weakClassifiers></_>
    <!-- stage 14 -->
    <_>
      <maxWeakCount>11</maxWeakCount>
      <stageThreshold>-7.7416425943374634e-01</stageThreshold>
      <weakClassifiers>
        <_>
          <internalNodes>
            0 -1 176 -7.5577656389214098e-05</internalNodes>
          <leafValues>
            -5.6410259008407593e-01 3.0196079611778259e-01</leafValues></_>
        <_>
          <internalNodes>
            0 -1 66 -1.0279282927513123e-02</internalNodes>
          <leafValues>
            -6.7889666557312012e-01 1.7597475647926331e-01</leafValues></_>
        <_>
          <internalNodes>
            0 -1 151 1.2820606352761388e-03</internalNodes>
          <leafValues>
            -2.2728319466114044e-01 5.3069627285003662e-01</leafValues></_>
        <_>
          <internalNodes>
            0 -1 104 -5.2967006340622902e-03</internalNodes>
          <leafValues>
            9.1102904081344604e-01 -1.4140479266643524e-01</leafValues></_>
        <_>
          <internalNodes>
            0 -1 2 2.5919923791661859e-04</internalNodes>
          <leafValues>
            1.9228585064411163e-01 -7.9568660259246826e-01</leafValues></_>
        <_>
          <internalNodes>
            0 -1 37 2.3463143035769463e-02</internalNodes>
          <leafValues>
            1.4381276071071625e-01 -8.3752143383026123e-01</leafValues></_>
        <_>
          <internalNodes>
            0 -1 96 3.6457888782024384e-02</internalNodes>
          <leafValues>
            -2.4828492105007172e-01 7.2840702533721924e-01</leafValues></_>
        <_>
          <internalNodes>
            0 -1 123 -6.7000044509768486e-04</internalNodes>
          <leafValues>
            5.1288050413131714e-01 -2.2070346772670746e-01</leafValues></_>
        <_>
          <internalNodes>
            0 -1 57 4.3950121849775314e-02</internalNodes>
          <leafValues>
            -1.8600216507911682e-01 6.3727843761444092e-01</leafValues></_>
        <_>
          <internalNodes>
            0 -1 58 -1.1340473592281342e-01</internalNodes>
          <leafValues>
            5.3993499279022217e-01 -2.4992522597312927e-01</leafValues></_>
        <_>
          <internalNodes>
            0 -1 142 -8.8487146422266960e-04</internalNodes>
          <leafValues>
            5.5146867036819458e-01 -2.4956253170967102e-01</leafValues></_></weakClassifiers></_>
    <!-- stage 15 -->
    <_>
      <maxWeakCount>11</maxWeakCount>
      <stageThreshold>-8.8904887437820435e-01</stageThreshold>
      <weakClassifiers>
        <_>
          <internalNodes>
            0 -1 178 2.9437458579195663e-05</internalNodes>
          <leafValues>
            2.9880478978157043e-01 -5.1219511032104492e-01</leafValues></_>
        <_>
          <internalNodes>
            0 -1 44 -4.9144215881824493e-02</internalNodes>
          <leafValues>
            5.8590978384017944e-01 -2.2676198184490204e-01</leafValues></_>
        <_>
          <internalNodes>
            0 -1 90 -5.7182434946298599e-02</internalNodes>
          <leafValues>
            7.9425120353698730e-01 -1.0592298209667206e-01</leafValues></_>
        <_>
          <internalNodes>
            0 -1 150 1.0192815680056810e-03</internalNodes>
          <leafValues>
            -2.5919282436370850e-01 5.6787383556365967e-01</leafValues></_>
        <_>
          <internalNodes>
            0 -1 91 -9.9965161643922329e-04</internalNodes>
          <leafValues>
            5.3453838825225830e-01 -1.5707311034202576e-01</leafValues></_>
        <_>
          <internalNodes>
            0 -1 145 1.9698129035532475e-03</internalNodes>
          <leafValues>
            -1.1987623572349548e-01 6.9573616981506348e-01</leafValues></_>
        <_>
          <internalNodes>
            0 -1 47 -4.6770490007475019e-04</internalNodes>
          <leafValues>
            7.7371728420257568e-01 -8.9935287833213806e-02</leafValues></_>
        <_>
          <internalNodes>
            0 -1 105 -3.4483917988836765e-03</internalNodes>
          <leafValues>
            8.4996819496154785e-01 -1.1477767676115036e-01</leafValues></_>
        <_>
          <internalNodes>
            0 -1 130 1.5107561193872243e-04</internalNodes>
          <leafValues>
            -2.7061617374420166e-01 4.3928399682044983e-01</leafValues></_>
        <_>
          <internalNodes>
            0 -1 147 2.0709810778498650e-03</internalNodes>
          <leafValues>
            -2.1393197774887085e-01 5.4331701993942261e-01</leafValues></_>
        <_>
          <internalNodes>
            0 -1 155 2.7191763365408406e-05</internalNodes>
          <leafValues>
            2.4683815240859985e-01 -5.9451127052307129e-01</leafValues></_></weakClassifiers></_>
    <!-- stage 16 -->
    <_>
      <maxWeakCount>9</maxWeakCount>
      <stageThreshold>-5.4360389709472656e-01</stageThreshold>
      <weakClassifiers>
        <_>
          <internalNodes>
            0 -1 56 -2.0419299602508545e-02</internalNodes>
          <leafValues>
            5.3956836462020874e-01 -2.1649484336376190e-01</leafValues></_>
        <_>
          <internalNodes>
            0 -1 84 -3.0962866730988026e-03</internalNodes>
          <leafValues>
            4.0566036105155945e-01 -2.6818561553955078e-01</leafValues></_>
        <_>
          <internalNodes>
            0 -1 113 -6.7413905635476112e-03</internalNodes>
          <leafValues>
            5.5978155136108398e-01 -2.4365812540054321e-01</leafValues></_>
        <_>
          <internalNodes>
            0 -1 27 -2.4345945348613895e-05</internalNodes>
          <leafValues>
            -4.1583582758903503e-01 3.4792989492416382e-01</leafValues></_>
        <_>
          <internalNodes>
            0 -1 115 4.6261251554824412e-05</internalNodes>
          <leafValues>
            -3.2556301355361938e-01 3.8909542560577393e-01</leafValues></_>
        <_>
          <internalNodes>
            0 -1 99 2.6952866464853287e-03</internalNodes>
          <leafValues>
            -2.6238098740577698e-01 4.4837099313735962e-01</leafValues></_>
        <_>
          <internalNodes>
            0 -1 93 3.5115284845232964e-03</internalNodes>
          <leafValues>
            2.1358577907085419e-01 -7.2194641828536987e-01</leafValues></_>
        <_>
          <internalNodes>
            0 -1 33 5.6035394663922489e-05</internalNodes>
          <leafValues>
            1.9832456111907959e-01 -6.7446523904800415e-01</leafValues></_>
        <_>
          <internalNodes>
            0 -1 40 2.4730252334848046e-05</internalNodes>
          <leafValues>
            2.7787566184997559e-01 -4.4909429550170898e-01</leafValues></_></weakClassifiers></_>
    <!-- stage 17 -->
    <_>
      <maxWeakCount>10</maxWeakCount>
      <stageThreshold>-1.1354794502258301e+00</stageThreshold>
      <weakClassifiers>
        <_>
          <internalNodes>
            0 -1 62 -8.7315201759338379e-02</internalNodes>
          <leafValues>
            -9.4444441795349121e-01 2.2558923065662384e-01</leafValues></_>
        <_>
          <internalNodes>
            0 -1 61 -9.9957641214132309e-03</internalNodes>
          <leafValues>
            8.3953517675399780e-01 -2.1239544451236725e-01</leafValues></_>
        <_>
          <internalNodes>
            0 -1 29 3.5113298508804291e-05</internalNodes>
          <leafValues>
            2.0677404105663300e-01 -6.6747921705245972e-01</leafValues></_>
        <_>
          <internalNodes>
            0 -1 140 4.5946065336465836e-02</internalNodes>
          <leafValues>
            -3.8253849744796753e-01 3.8972172141075134e-01</leafValues></_>
        <_>
          <internalNodes>
            0 -1 31 1.9710503518581390e-02</internalNodes>
          <leafValues>
            -2.8734931349754333e-01 6.1168158054351807e-01</leafValues></_>
        <_>
          <internalNodes>
            0 -1 49 -2.5781907606869936e-03</internalNodes>
          <leafValues>
            6.2221419811248779e-01 -2.5246036052703857e-01</leafValues></_>
        <_>
          <internalNodes>
            0 -1 177 1.4364214148372412e-03</internalNodes>
          <leafValues>
            2.6362690329551697e-01 -6.2571609020233154e-01</leafValues></_>
        <_>
          <internalNodes>
            0 -1 101 8.5600223392248154e-03</internalNodes>
          <leafValues>
            -1.7140974104404449e-01 8.2515382766723633e-01</leafValues></_>
        <_>
          <internalNodes>
            0 -1 55 -1.9164474215358496e-03</internalNodes>
          <leafValues>
            -5.0583487749099731e-01 3.2976457476615906e-01</leafValues></_>
        <_>
          <internalNodes>
            0 -1 114 -1.3766227290034294e-02</internalNodes>
          <leafValues>
            9.3229961395263672e-01 -1.9715870916843414e-01</leafValues></_></weakClassifiers></_>
    <!-- stage 18 -->
    <_>
      <maxWeakCount>7</maxWeakCount>
      <stageThreshold>-5.3861939907073975e-01</stageThreshold>
      <weakClassifiers>
        <_>
          <internalNodes>
            0 -1 85 3.1519144773483276e-02</internalNodes>
          <leafValues>
            2.6277372241020203e-01 -6.6101694107055664e-01</leafValues></_>
        <_>
          <internalNodes>
            0 -1 166 3.6880318657495081e-04</internalNodes>
          <leafValues>
            -3.0074444413185120e-01 4.0708929300308228e-01</leafValues></_>
        <_>
          <internalNodes>
            0 -1 110 -1.6082774847745895e-02</internalNodes>
          <leafValues>
            5.4763805866241455e-01 -2.3130433261394501e-01</leafValues></_>
        <_>
          <internalNodes>
            0 -1 111 -8.8914261141326278e-05</internalNodes>
          <leafValues>
            3.7461721897125244e-01 -3.8119086623191833e-01</leafValues></_>
        <_>
          <internalNodes>
            0 -1 52 -6.6551752388477325e-03</internalNodes>
          <leafValues>
            -4.4084292650222778e-01 3.3538043498992920e-01</leafValues></_>
        <_>
          <internalNodes>
            0 -1 128 -6.2479879707098007e-03</internalNodes>
          <leafValues>
            4.2235121130943298e-01 -3.2028844952583313e-01</leafValues></_>
        <_>
          <internalNodes>
            0 -1 163 8.8742643129080534e-05</internalNodes>
          <leafValues>
            2.2648300230503082e-01 -5.7749551534652710e-01</leafValues></_></weakClassifiers></_>
    <!-- stage 19 -->
    <_>
      <maxWeakCount>10</maxWeakCount>
      <stageThreshold>-5.8543676137924194e-01</stageThreshold>
      <weakClassifiers>
        <_>
          <internalNodes>
            0 -1 78 -1.8529137596487999e-03</internalNodes>
          <leafValues>
            9.1836732625961304e-01 -4.2253520339727402e-02</leafValues></_>
        <_>
          <internalNodes>
            0 -1 100 6.9110083859413862e-04</internalNodes>
          <leafValues>
            -1.7952398955821991e-01 5.3989738225936890e-01</leafValues></_>
        <_>
          <internalNodes>
            0 -1 30 2.1586951334029436e-04</internalNodes>
          <leafValues>
            2.3531734943389893e-01 -5.9045106172561646e-01</leafValues></_>
        <_>
          <internalNodes>
            0 -1 64 1.9945347681641579e-02</internalNodes>
          <leafValues>
            -1.6866156458854675e-01 1.</leafValues></_>
        <_>
          <internalNodes>
            0 -1 77 -2.8318856493569911e-04</internalNodes>
          <leafValues>
            3.8889878988265991e-01 -3.9221593737602234e-01</leafValues></_>
        <_>
          <internalNodes>
            0 -1 3 -2.9276134446263313e-03</internalNodes>
          <leafValues>
            -2.7757370471954346e-01 4.3123084306716919e-01</leafValues></_>
        <_>
          <internalNodes>
            0 -1 74 -8.1012211740016937e-03</internalNodes>
          <leafValues>
            7.6168799400329590e-01 -2.2841964662075043e-01</leafValues></_>
        <_>
          <internalNodes>
            0 -1 46 -5.6087155826389790e-04</internalNodes>
          <leafValues>
            5.0456994771957397e-01 -2.3177090287208557e-01</leafValues></_>
        <_>
          <internalNodes>
            0 -1 50 -7.8506045974791050e-04</internalNodes>
          <leafValues>
            5.6867253780364990e-01 -2.9049882292747498e-01</leafValues></_>
        <_>
          <internalNodes>
            0 -1 59 3.4816487459465861e-04</internalNodes>
          <leafValues>
            3.5518917441368103e-01 -3.9340826869010925e-01</leafValues></_></weakClassifiers></_></stages>
  <features>
    <_>
      <rects>
        <_>
          0 0 2 2 -1.</_>
        <_>
          0 0 1 1 2.</_>
        <_>
          1 1 1 1 2.</_></rects>
      <tilted>0</tilted></_>
    <_>
      <rects>
        <_>
          0 0 1 4 -1.</_>
        <_>
          0 2 1 2 2.</_></rects>
      <tilted>0</tilted></_>
    <_>
      <rects>
        <_>
          0 0 1 12 -1.</_>
        <_>
          0 6 1 6 2.</_></rects>
      <tilted>0</tilted></_>
    <_>
      <rects>
        <_>
          0 0 20 1 -1.</_>
        <_>
          10 0 10 1 2.</_></rects>
      <tilted>0</tilted></_>
    <_>
      <rects>
        <_>
          0 0 24 24 -1.</_>
        <_>
          0 12 24 12 2.</_></rects>
      <tilted>0</tilted></_>
    <_>
      <rects>
        <_>
          0 1 1 6 -1.</_>
        <_>
          0 3 1 2 3.</_></rects>
      <tilted>0</tilted></_>
    <_>
      <rects>
        <_>
          0 2 2 6 -1.</_>
        <_>
          0 4 2 2 3.</_></rects>
      <tilted>0</tilted></_>
    <_>
      <rects>
        <_>
          0 3 10 21 -1.</_>
        <_>
          5 3 5 21 2.</_></rects>
      <tilted>0</tilted></_>
    <_>
      <rects>
        <_>
          0 4 1 4 -1.</_>
        <_>
          0 6 1 2 2.</_></rects>
      <tilted>0</tilted></_>
    <_>
      <rects>
        <_>
          0 4 1 10 -1.</_>
        <_>
          0 9 1 5 2.</_></rects>
      <tilted>0</tilted></_>
    <_>
      <rects>
        <_>
          0 4 12 2 -1.</_>
        <_>
          6 4 6 2 2.</_></rects>
      <tilted>0</tilted></_>
    <_>
      <rects>
        <_>
          0 6 2 2 -1.</_>
        <_>
          1 6 1 2 2.</_></rects>
      <tilted>0</tilted></_>
    <_>
      <rects>
        <_>
          0 6 24 18 -1.</_>
        <_>
          12 6 12 18 2.</_></rects>
      <tilted>0</tilted></_>
    <_>
      <rects>
        <_>
          0 7 1 2 -1.</_>
        <_>
          0 8 1 1 2.</_></rects>
      <tilted>0</tilted></_>
    <_>
      <rects>
        <_>
          0 7 1 3 -1.</_>
        <_>
          0 8 1 1 3.</_></rects>
      <tilted>0</tilted></_>
    <_>
      <rects>
        <_>
          0 7 12 3 -1.</_>
        <_>
          6 7 6 3 2.</_></rects>
      <tilted>0</tilted></_>
    <_>
      <rects>
        <_>
          0 9 2 8 -1.</_>
        <_>
          1 9 1 8 2.</_></rects>
      <tilted>0</tilted></_>
    <_>
      <rects>
        <_>
          0 10 4 7 -1.</_>
        <_>
          2 10 2 7 2.</_></rects>
      <tilted>0</tilted></_>
    <_>
      <rects>
        <_>
          0 10 12 13 -1.</_>
        <_>
          6 10 6 13 2.</_></rects>
      <tilted>0</tilted></_>
    <_>
      <rects>
        <_>
          0 12 2 5 -1.</_>
        <_>
          1 12 1 5 2.</_></rects>
      <tilted>0</tilted></_>
    <_>
      <rects>
        <_>
          0 15 6 4 -1.</_>
        <_>
          0 15 3 2 2.</_>
        <_>
          3 17 3 2 2.</_></rects>
      <tilted>0</tilted></_>
    <_>
      <rects>
        <_>
          0 16 22 4 -1.</_>
        <_>
          0 16 11 2 2.</_>
        <_>
          11 18 11 2 2.</_></rects>
      <tilted>0</tilted></_>
    <_>
      <rects>
        <_>
          0 19 2 5 -1.</_>
        <_>
          1 19 1 5 2.</_></rects>
      <tilted>0</tilted></_>
    <_>
      <rects>
        <_>
          0 19 3 2 -1.</_>
        <_>
          0 20 3 1 2.</_></rects>
      <tilted>0</tilted></_>
    <_>
      <rects>
        <_>
          0 21 4 2 -1.</_>
        <_>
          0 21 2 1 2.</_>
        <_>
          2 22 2 1 2.</_></rects>
      <tilted>0</tilted></_>
    <_>
      <rects>
        <_>
          0 23 8 1 -1.</_>
        <_>
          4 23 4 1 2.</_></rects>
      <tilted>0</tilted></_>
    <_>
      <rects>
        <_>
          0 23 12 1 -1.</_>
        <_>
          4 23 4 1 3.</_></rects>
      <tilted>0</tilted></_>
    <_>
      <rects>
        <_>
          1 0 2 10 -1.</_>
        <_>
          2 0 1 10 2.</_></rects>
      <tilted>0</tilted></_>
    <_>
      <rects>
        <_>
          1 0 13 20 -1.</_>
        <_>
          1 10 13 10 2.</_></rects>
      <tilted>0</tilted></_>
    <_>
      <rects>
        <_>
          1 1 1 3 -1.</_>
        <_>
          1 2 1 1 3.</_></rects>
      <tilted>0</tilted></_>
    <_>
      <rects>
        <_>
          1 1 2 8 -1.</_>
        <_>
          1 1 1 4 2.</_>
        <_>
          2 5 1 4 2.</_></rects>
      <tilted>0</tilted></_>
    <_>
      <rects>
        <_>
          1 3 5 18 -1.</_>
        <_>
          1 9 5 6 3.</_></rects>
      <tilted>0</tilted></_>
    <_>
      <rects>
        <_>
          1 4 19 20 -1.</_>
        <_>
          1 14 19 10 2.</_></rects>
      <tilted>0</tilted></_>
    <_>
      <rects>
        <_>
          1 5 2 7 -1.</_>
        <_>
          2 5 1 7 2.</_></rects>
      <tilted>0</tilted></_>
    <_>
      <rects>
        <_>
          1 6 10 6 -1.</_>
        <_>
          1 6 5 3 2.</_>
        <_>
          6 9 5 3 2.</_></rects>
      <tilted>0</tilted></_>
    <_>
      <rects>
        <_>
          1 7 9 12 -1.</_>
        <_>
          1 11 9 4 3.</_></rects>
      <tilted>0</tilted></_>
    <_>
      <rects>
        <_>
          1 8 4 6 -1.</_>
        <_>
          1 10 4 2 3.</_></rects>
      <tilted>0</tilted></_>
    <_>
      <rects>
        <_>
          1 11 6 9 -1.</_>
        <_>
          3 11 2 9 3.</_></rects>
      <tilted>0</tilted></_>
    <_>
      <rects>
        <_>
          1 15 12 8 -1.</_>
        <_>
          1 19 12 4 2.</_></rects>
      <tilted>0</tilted></_>
    <_>
      <rects>
        <_>
          1 16 2 8 -1.</_>
        <_>
          2 16 1 8 2.</_></rects>
      <tilted>0</tilted></_>
    <_>
      <rects>
        <_>
          1 20 3 3 -1.</_>
        <_>
          1 21 3 1 3.</_></rects>
      <tilted>0</tilted></_>
    <_>
      <rects>
        <_>
          1 22 3 2 -1.</_>
        <_>
          1 23 3 1 2.</_></rects>
      <tilted>0</tilted></_>
    <_>
      <rects>
        <_>
          2 0 10 12 -1.</_>
        <_>
          2 0 5 6 2.</_>
        <_>
          7 6 5 6 2.</_></rects>
      <tilted>0</tilted></_>
    <_>
      <rects>
        <_>
          2 0 6 20 -1.</_>
        <_>
          2 10 6 10 2.</_></rects>
      <tilted>0</tilted></_>
    <_>
      <rects>
        <_>
          2 0 20 6 -1.</_>
        <_>
          2 3 20 3 2.</_></rects>
      <tilted>0</tilted></_>
    <_>
      <rects>
        <_>
          2 4 9 8 -1.</_>
        <_>
          5 4 3 8 3.</_></rects>
      <tilted>0</tilted></_>
    <_>
      <rects>
        <_>
          2 11 8 2 -1.</_>
        <_>
          2 12 8 1 2.</_></rects>
      <tilted>0</tilted></_>
    <_>
      <rects>
        <_>
          2 14 2 2 -1.</_>
        <_>
          2 14 1 1 2.</_>
        <_>
          3 15 1 1 2.</_></rects>
      <tilted>0</tilted></_>
    <_>
      <rects>
        <_>
          2 16 6 3 -1.</_>
        <_>
          4 16 2 3 3.</_></rects>
      <tilted>0</tilted></_>
    <_>
      <rects>
        <_>
          2 17 20 2 -1.</_>
        <_>
          2 17 10 1 2.</_>
        <_>
          12 18 10 1 2.</_></rects>
      <tilted>0</tilted></_>
    <_>
      <rects>
        <_>
          2 18 16 2 -1.</_>
        <_>
          2 19 16 1 2.</_></rects>
      <tilted>0</tilted></_>
    <_>
      <rects>
        <_>
          2 22 3 2 -1.</_>
        <_>
          3 22 1 2 3.</_></rects>
      <tilted>0</tilted></_>
    <_>
      <rects>
        <_>
          3 0 12 1 -1.</_>
        <_>
          9 0 6 1 2.</_></rects>
      <tilted>0</tilted></_>
    <_>
      <rects>
        <_>
          3 5 6 19 -1.</_>
        <_>
          6 5 3 19 2.</_></rects>
      <tilted>0</tilted></_>
    <_>
      <rects>
        <_>
          3 8 4 6 -1.</_>
        <_>
          3 8 2 3 2.</_>
        <_>
          5 11 2 3 2.</_></rects>
      <tilted>0</tilted></_>
    <_>
      <rects>
        <_>
          3 8 15 3 -1.</_>
        <_>
          3 9 15 1 3.</_></rects>
      <tilted>0</tilted></_>
    <_>
      <rects>
        <_>
          3 10 6 10 -1.</_>
        <_>
          6 10 3 10 2.</_></rects>
      <tilted>0</tilted></_>
    <_>
      <rects>
        <_>
          3 13 6 10 -1.</_>
        <_>
          3 18 6 5 2.</_></rects>
      <tilted>0</tilted></_>
    <_>
      <rects>
        <_>
          3 14 21 6 -1.</_>
        <_>
          10 14 7 6 3.</_></rects>
      <tilted>0</tilted></_>
    <_>
      <rects>
        <_>
          4 0 18 2 -1.</_>
        <_>
          4 0 9 1 2.</_>
        <_>
          13 1 9 1 2.</_></rects>
      <tilted>0</tilted></_>
    <_>
      <rects>
        <_>
          4 6 9 13 -1.</_>
        <_>
          7 6 3 13 3.</_></rects>
      <tilted>0</tilted></_>
    <_>
      <rects>
        <_>
          4 9 4 14 -1.</_>
        <_>
          4 9 2 7 2.</_>
        <_>
          6 16 2 7 2.</_></rects>
      <tilted>0</tilted></_>
    <_>
      <rects>
        <_>
          4 11 15 8 -1.</_>
        <_>
          4 15 15 4 2.</_></rects>
      <tilted>0</tilted></_>
    <_>
      <rects>
        <_>
          4 18 6 2 -1.</_>
        <_>
          4 18 3 1 2.</_>
        <_>
          7 19 3 1 2.</_></rects>
      <tilted>0</tilted></_>
    <_>
      <rects>
        <_>
          5 7 6 6 -1.</_>
        <_>
          8 7 3 6 2.</_></rects>
      <tilted>0</tilted></_>
    <_>
      <rects>
        <_>
          5 8 5 9 -1.</_>
        <_>
          5 11 5 3 3.</_></rects>
      <tilted>0</tilted></_>
    <_>
      <rects>
        <_>
          5 9 9 6 -1.</_>
        <_>
          5 11 9 2 3.</_></rects>
      <tilted>0</tilted></_>
    <_>
      <rects>
        <_>
          5 12 2 6 -1.</_>
        <_>
          5 12 1 3 2.</_>
        <_>
          6 15 1 3 2.</_></rects>
      <tilted>0</tilted></_>
    <_>
      <rects>
        <_>
          5 14 3 5 -1.</_>
        <_>
          6 14 1 5 3.</_></rects>
      <tilted>0</tilted></_>
    <_>
      <rects>
        <_>
          5 16 13 2 -1.</_>
        <_>
          5 17 13 1 2.</_></rects>
      <tilted>0</tilted></_>
    <_>
      <rects>
        <_>
          5 16 14 8 -1.</_>
        <_>
          5 20 14 4 2.</_></rects>
      <tilted>0</tilted></_>
    <_>
      <rects>
        <_>
          5 20 14 4 -1.</_>
        <_>
          5 22 14 2 2.</_></rects>
      <tilted>0</tilted></_>
    <_>
      <rects>
        <_>
          5 23 6 1 -1.</_>
        <_>
          7 23 2 1 3.</_></rects>
      <tilted>0</tilted></_>
    <_>
      <rects>
        <_>
          6 0 8 11 -1.</_>
        <_>
          10 0 4 11 2.</_></rects>
      <tilted>0</tilted></_>
    <_>
      <rects>
        <_>
          6 0 16 3 -1.</_>
        <_>
          6 1 16 1 3.</_></rects>
      <tilted>0</tilted></_>
    <_>
      <rects>
        <_>
          6 2 6 4 -1.</_>
        <_>
          8 2 2 4 3.</_></rects>
      <tilted>0</tilted></_>
    <_>
      <rects>
        <_>
          6 7 8 11 -1.</_>
        <_>
          10 7 4 11 2.</_></rects>
      <tilted>0</tilted></_>
    <_>
      <rects>
        <_>
          6 14 2 10 -1.</_>
        <_>
          7 14 1 10 2.</_></rects>
      <tilted>0</tilted></_>
    <_>
      <rects>
        <_>
          6 15 4 2 -1.</_>
        <_>
          6 15 2 1 2.</_>
        <_>
          8 16 2 1 2.</_></rects>
      <tilted>0</tilted></_>
    <_>
      <rects>
        <_>
          6 16 18 4 -1.</_>
        <_>
          6 16 9 2 2.</_>
        <_>
          15 18 9 2 2.</_></rects>
      <tilted>0</tilted></_>
    <_>
      <rects>
        <_>
          6 17 4 3 -1.</_>
        <_>
          6 18 4 1 3.</_></rects>
      <tilted>0</tilted></_>
    <_>
      <rects>
        <_>
          6 22 11 2 -1.</_>
        <_>
          6 23 11 1 2.</_></rects>
      <tilted>0</tilted></_>
    <_>
      <rects>
        <_>
          7 1 9 21 -1.</_>
        <_>
          10 1 3 21 3.</_></rects>
      <tilted>0</tilted></_>
    <_>
      <rects>
        <_>
          7 7 3 6 -1.</_>
        <_>
          7 10 3 3 2.</_></rects>
      <tilted>0</tilted></_>
    <_>
      <rects>
        <_>
          7 7 16 8 -1.</_>
        <_>
          7 7 8 4 2.</_>
        <_>
          15 11 8 4 2.</_></rects>
      <tilted>0</tilted></_>
    <_>
      <rects>
        <_>
          7 9 7 9 -1.</_>
        <_>
          7 12 7 3 3.</_></rects>
      <tilted>0</tilted></_>
    <_>
      <rects>
        <_>
          7 14 2 3 -1.</_>
        <_>
          7 15 2 1 3.</_></rects>
      <tilted>0</tilted></_>
    <_>
      <rects>
        <_>
          7 18 14 2 -1.</_>
        <_>
          7 18 7 1 2.</_>
        <_>
          14 19 7 1 2.</_></rects>
      <tilted>0</tilted></_>
    <_>
      <rects>
        <_>
          7 18 11 6 -1.</_>
        <_>
          7 21 11 3 2.</_></rects>
      <tilted>0</tilted></_>
    <_>
      <rects>
        <_>
          7 20 5 4 -1.</_>
        <_>
          7 22 5 2 2.</_></rects>
      <tilted>0</tilted></_>
    <_>
      <rects>
        <_>
          8 1 9 7 -1.</_>
        <_>
          11 1 3 7 3.</_></rects>
      <tilted>0</tilted></_>
    <_>
      <rects>
        <_>
          8 8 3 3 -1.</_>
        <_>
          9 8 1 3 3.</_></rects>
      <tilted>0</tilted></_>
    <_>
      <rects>
        <_>
          8 10 1 14 -1.</_>
        <_>
          8 17 1 7 2.</_></rects>
      <tilted>0</tilted></_>
    <_>
      <rects>
        <_>
          8 14 10 2 -1.</_>
        <_>
          8 15 10 1 2.</_></rects>
      <tilted>0</tilted></_>
    <_>
      <rects>
        <_>
          8 20 5 4 -1.</_>
        <_>
          8 22 5 2 2.</_></rects>
      <tilted>0</tilted></_>
    <_>
      <rects>
        <_>
          8 22 8 2 -1.</_>
        <_>
          8 23 8 1 2.</_></rects>
      <tilted>0</tilted></_>
    <_>
      <rects>
        <_>
          9 0 6 13 -1.</_>
        <_>
          11 0 2 13 3.</_></rects>
      <tilted>0</tilted></_>
    <_>
      <rects>
        <_>
          9 2 5 6 -1.</_>
        <_>
          9 5 5 3 2.</_></rects>
      <tilted>0</tilted></_>
    <_>
      <rects>
        <_>
          9 6 6 7 -1.</_>
        <_>
          11 6 2 7 3.</_></rects>
      <tilted>0</tilted></_>
    <_>
      <rects>
        <_>
          9 6 7 6 -1.</_>
        <_>
          9 8 7 2 3.</_></rects>
      <tilted>0</tilted></_>
    <_>
      <rects>
        <_>
          9 8 2 11 -1.</_>
        <_>
          10 8 1 11 2.</_></rects>
      <tilted>0</tilted></_>
    <_>
      <rects>
        <_>
          9 15 4 6 -1.</_>
        <_>
          9 17 4 2 3.</_></rects>
      <tilted>0</tilted></_>
    <_>
      <rects>
        <_>
          10 1 6 11 -1.</_>
        <_>
          12 1 2 11 3.</_></rects>
      <tilted>0</tilted></_>
    <_>
      <rects>
        <_>
          10 2 8 6 -1.</_>
        <_>
          10 4 8 2 3.</_></rects>
      <tilted>0</tilted></_>
    <_>
      <rects>
        <_>
          10 3 3 4 -1.</_>
        <_>
          11 3 1 4 3.</_></rects>
      <tilted>0</tilted></_>
    <_>
      <rects>
        <_>
          10 4 7 3 -1.</_>
        <_>
          10 5 7 1 3.</_></rects>
      <tilted>0</tilted></_>
    <_>
      <rects>
        <_>
          11 1 3 11 -1.</_>
        <_>
          12 1 1 11 3.</_></rects>
      <tilted>0</tilted></_>
    <_>
      <rects>
        <_>
          11 4 3 17 -1.</_>
        <_>
          12 4 1 17 3.</_></rects>
      <tilted>0</tilted></_>
    <_>
      <rects>
        <_>
          11 8 3 13 -1.</_>
        <_>
          12 8 1 13 3.</_></rects>
      <tilted>0</tilted></_>
    <_>
      <rects>
        <_>
          11 9 6 2 -1.</_>
        <_>
          11 10 6 1 2.</_></rects>
      <tilted>0</tilted></_>
    <_>
      <rects>
        <_>
          11 14 10 10 -1.</_>
        <_>
          11 14 5 5 2.</_>
        <_>
          16 19 5 5 2.</_></rects>
      <tilted>0</tilted></_>
    <_>
      <rects>
        <_>
          11 18 2 2 -1.</_>
        <_>
          11 19 2 1 2.</_></rects>
      <tilted>0</tilted></_>
    <_>
      <rects>
        <_>
          12 0 3 8 -1.</_>
        <_>
          12 4 3 4 2.</_></rects>
      <tilted>0</tilted></_>
    <_>
      <rects>
        <_>
          12 0 9 4 -1.</_>
        <_>
          12 2 9 2 2.</_></rects>
      <tilted>0</tilted></_>
    <_>
      <rects>
        <_>
          12 4 3 7 -1.</_>
        <_>
          13 4 1 7 3.</_></rects>
      <tilted>0</tilted></_>
    <_>
      <rects>
        <_>
          12 5 4 3 -1.</_>
        <_>
          12 6 4 1 3.</_></rects>
      <tilted>0</tilted></_>
    <_>
      <rects>
        <_>
          12 7 1 4 -1.</_>
        <_>
          12 9 1 2 2.</_></rects>
      <tilted>0</tilted></_>
    <_>
      <rects>
        <_>
          12 11 6 1 -1.</_>
        <_>
          14 11 2 1 3.</_></rects>
      <tilted>0</tilted></_>
    <_>
      <rects>
        <_>
          12 14 5 6 -1.</_>
        <_>
          12 17 5 3 2.</_></rects>
      <tilted>0</tilted></_>
    <_>
      <rects>
        <_>
          13 2 4 3 -1.</_>
        <_>
          13 3 4 1 3.</_></rects>
      <tilted>0</tilted></_>
    <_>
      <rects>
        <_>
          13 3 2 20 -1.</_>
        <_>
          13 3 1 10 2.</_>
        <_>
          14 13 1 10 2.</_></rects>
      <tilted>0</tilted></_>
    <_>
      <rects>
        <_>
          13 9 9 5 -1.</_>
        <_>
          16 9 3 5 3.</_></rects>
      <tilted>0</tilted></_>
    <_>
      <rects>
        <_>
          13 10 8 3 -1.</_>
        <_>
          13 11 8 1 3.</_></rects>
      <tilted>0</tilted></_>
    <_>
      <rects>
        <_>
          13 12 8 2 -1.</_>
        <_>
          13 12 4 1 2.</_>
        <_>
          17 13 4 1 2.</_></rects>
      <tilted>0</tilted></_>
    <_>
      <rects>
        <_>
          13 14 2 1 -1.</_>
        <_>
          14 14 1 1 2.</_></rects>
      <tilted>0</tilted></_>
    <_>
      <rects>
        <_>
          13 17 1 2 -1.</_>
        <_>
          13 18 1 1 2.</_></rects>
      <tilted>0</tilted></_>
    <_>
      <rects>
        <_>
          13 20 2 4 -1.</_>
        <_>
          13 20 1 2 2.</_>
        <_>
          14 22 1 2 2.</_></rects>
      <tilted>0</tilted></_>
    <_>
      <rects>
        <_>
          14 6 10 17 -1.</_>
        <_>
          19 6 5 17 2.</_></rects>
      <tilted>0</tilted></_>
    <_>
      <rects>
        <_>
          14 12 6 11 -1.</_>
        <_>
          16 12 2 11 3.</_></rects>
      <tilted>0</tilted></_>
    <_>
      <rects>
        <_>
          14 12 10 6 -1.</_>
        <_>
          19 12 5 6 2.</_></rects>
      <tilted>0</tilted></_>
    <_>
      <rects>
        <_>
          14 12 7 3 -1.</_>
        <_>
          14 13 7 1 3.</_></rects>
      <tilted>0</tilted></_>
    <_>
      <rects>
        <_>
          14 14 10 10 -1.</_>
        <_>
          14 19 10 5 2.</_></rects>
      <tilted>0</tilted></_>
    <_>
      <rects>
        <_>
          15 0 9 17 -1.</_>
        <_>
          18 0 3 17 3.</_></rects>
      <tilted>0</tilted></_>
    <_>
      <rects>
        <_>
          15 17 1 6 -1.</_>
        <_>
          15 20 1 3 2.</_></rects>
      <tilted>0</tilted></_>
    <_>
      <rects>
        <_>
          15 22 5 2 -1.</_>
        <_>
          15 23 5 1 2.</_></rects>
      <tilted>0</tilted></_>
    <_>
      <rects>
        <_>
          15 23 2 1 -1.</_>
        <_>
          16 23 1 1 2.</_></rects>
      <tilted>0</tilted></_>
    <_>
      <rects>
        <_>
          16 3 3 15 -1.</_>
        <_>
          17 3 1 15 3.</_></rects>
      <tilted>0</tilted></_>
    <_>
      <rects>
        <_>
          16 6 8 4 -1.</_>
        <_>
          20 6 4 4 2.</_></rects>
      <tilted>0</tilted></_>
    <_>
      <rects>
        <_>
          16 7 2 16 -1.</_>
        <_>
          16 7 1 8 2.</_>
        <_>
          17 15 1 8 2.</_></rects>
      <tilted>0</tilted></_>
    <_>
      <rects>
        <_>
          16 8 3 9 -1.</_>
        <_>
          16 11 3 3 3.</_></rects>
      <tilted>0</tilted></_>
    <_>
      <rects>
        <_>
          16 9 8 11 -1.</_>
        <_>
          20 9 4 11 2.</_></rects>
      <tilted>0</tilted></_>
    <_>
      <rects>
        <_>
          16 9 8 12 -1.</_>
        <_>
          20 9 4 12 2.</_></rects>
      <tilted>0</tilted></_>
    <_>
      <rects>
        <_>
          16 11 6 2 -1.</_>
        <_>
          19 11 3 2 2.</_></rects>
      <tilted>0</tilted></_>
    <_>
      <rects>
        <_>
          16 18 2 3 -1.</_>
        <_>
          16 19 2 1 3.</_></rects>
      <tilted>0</tilted></_>
    <_>
      <rects>
        <_>
          17 0 4 9 -1.</_>
        <_>
          17 3 4 3 3.</_></rects>
      <tilted>0</tilted></_>
    <_>
      <rects>
        <_>
          17 12 6 2 -1.</_>
        <_>
          17 12 3 1 2.</_>
        <_>
          20 13 3 1 2.</_></rects>
      <tilted>0</tilted></_>
    <_>
      <rects>
        <_>
          17 15 2 8 -1.</_>
        <_>
          17 15 1 4 2.</_>
        <_>
          18 19 1 4 2.</_></rects>
      <tilted>0</tilted></_>
    <_>
      <rects>
        <_>
          17 17 4 4 -1.</_>
        <_>
          17 17 2 2 2.</_>
        <_>
          19 19 2 2 2.</_></rects>
      <tilted>0</tilted></_>
    <_>
      <rects>
        <_>
          17 18 3 2 -1.</_>
        <_>
          17 19 3 1 2.</_></rects>
      <tilted>0</tilted></_>
    <_>
      <rects>
        <_>
          17 20 5 4 -1.</_>
        <_>
          17 22 5 2 2.</_></rects>
      <tilted>0</tilted></_>
    <_>
      <rects>
        <_>
          18 13 2 6 -1.</_>
        <_>
          18 13 1 3 2.</_>
        <_>
          19 16 1 3 2.</_></rects>
      <tilted>0</tilted></_>
    <_>
      <rects>
        <_>
          18 17 2 5 -1.</_>
        <_>
          19 17 1 5 2.</_></rects>
      <tilted>0</tilted></_>
    <_>
      <rects>
        <_>
          18 22 3 1 -1.</_>
        <_>
          19 22 1 1 3.</_></rects>
      <tilted>0</tilted></_>
    <_>
      <rects>
        <_>
          19 2 1 21 -1.</_>
        <_>
          19 9 1 7 3.</_></rects>
      <tilted>0</tilted></_>
    <_>
      <rects>
        <_>
          19 3 2 20 -1.</_>
        <_>
          20 3 1 20 2.</_></rects>
      <tilted>0</tilted></_>
    <_>
      <rects>
        <_>
          19 22 2 2 -1.</_>
        <_>
          19 22 1 1 2.</_>
        <_>
          20 23 1 1 2.</_></rects>
      <tilted>0</tilted></_>
    <_>
      <rects>
        <_>
          19 23 4 1 -1.</_>
        <_>
          21 23 2 1 2.</_></rects>
      <tilted>0</tilted></_>
    <_>
      <rects>
        <_>
          20 0 2 2 -1.</_>
        <_>
          20 0 1 1 2.</_>
        <_>
          21 1 1 1 2.</_></rects>
      <tilted>0</tilted></_>
    <_>
      <rects>
        <_>
          20 0 4 1 -1.</_>
        <_>
          22 0 2 1 2.</_></rects>
      <tilted>0</tilted></_>
    <_>
      <rects>
        <_>
          20 2 4 1 -1.</_>
        <_>
          22 2 2 1 2.</_></rects>
      <tilted>0</tilted></_>
    <_>
      <rects>
        <_>
          20 20 4 3 -1.</_>
        <_>
          20 21 4 1 3.</_></rects>
      <tilted>0</tilted></_>
    <_>
      <rects>
        <_>
          20 22 4 1 -1.</_>
        <_>
          22 22 2 1 2.</_></rects>
      <tilted>0</tilted></_>
    <_>
      <rects>
        <_>
          21 0 3 3 -1.</_>
        <_>
          21 1 3 1 3.</_></rects>
      <tilted>0</tilted></_>
    <_>
      <rects>
        <_>
          21 1 2 3 -1.</_>
        <_>
          22 1 1 3 2.</_></rects>
      <tilted>0</tilted></_>
    <_>
      <rects>
        <_>
          21 2 3 1 -1.</_>
        <_>
          22 2 1 1 3.</_></rects>
      <tilted>0</tilted></_>
    <_>
      <rects>
        <_>
          21 21 1 2 -1.</_>
        <_>
          21 22 1 1 2.</_></rects>
      <tilted>0</tilted></_>
    <_>
      <rects>
        <_>
          22 10 2 11 -1.</_>
        <_>
          23 10 1 11 2.</_></rects>
      <tilted>0</tilted></_>
    <_>
      <rects>
        <_>
          22 13 2 5 -1.</_>
        <_>
          23 13 1 5 2.</_></rects>
      <tilted>0</tilted></_>
    <_>
      <rects>
        <_>
          22 19 2 2 -1.</_>
        <_>
          23 19 1 2 2.</_></rects>
      <tilted>0</tilted></_>
    <_>
      <rects>
        <_>
          23 0 1 9 -1.</_>
        <_>
          23 3 1 3 3.</_></rects>
      <tilted>0</tilted></_>
    <_>
      <rects>
        <_>
          23 0 1 24 -1.</_>
        <_>
          23 8 1 8 3.</_></rects>
      <tilted>0</tilted></_>
    <_>
      <rects>
        <_>
          23 1 1 12 -1.</_>
        <_>
          23 5 1 4 3.</_></rects>
      <tilted>0</tilted></_>
    <_>
      <rects>
        <_>
          23 1 1 15 -1.</_>
        <_>
          23 6 1 5 3.</_></rects>
      <tilted>0</tilted></_>
    <_>
      <rects>
        <_>
          23 4 1 12 -1.</_>
        <_>
          23 10 1 6 2.</_></rects>
      <tilted>0</tilted></_>
    <_>
      <rects>
        <_>
          23 5 1 9 -1.</_>
        <_>
          23 8 1 3 3.</_></rects>
      <tilted>0</tilted></_>
    <_>
      <rects>
        <_>
          23 5 1 8 -1.</_>
        <_>
          23 9 1 4 2.</_></rects>
      <tilted>0</tilted></_>
    <_>
      <rects>
        <_>
          23 9 1 6 -1.</_>
        <_>
          23 11 1 2 3.</_></rects>
      <tilted>0</tilted></_>
    <_>
      <rects>
        <_>
          23 9 1 15 -1.</_>
        <_>
          23 14 1 5 3.</_></rects>
      <tilted>0</tilted></_>
    <_>
      <rects>
        <_>
          23 18 1 3 -1.</_>
        <_>
          23 19 1 1 3.</_></rects>
      <tilted>0</tilted></_></features></cascade>
</opencv_storage>
