<?xml version="1.0"?>
<opencv_storage>
<stage3>
  <maxWeakCount>10</maxWeakCount>
  <stageThreshold>-9.4629746675491333e-01</stageThreshold>
  <weakClassifiers>
    <_>
      <internalNodes>
        0 -1 10028 6.6058259108103812e-05</internalNodes>
      <leafValues>
        3.3590734004974365e-01 -7.2972971200942993e-01</leafValues></_>
    <_>
      <internalNodes>
        0 -1 89397 1.5319315716624260e-02</internalNodes>
      <leafValues>
        -4.4648197293281555e-01 3.6476531624794006e-01</leafValues></_>
    <_>
      <internalNodes>
        0 -1 13378 1.7829665011959150e-05</internalNodes>
      <leafValues>
        3.8165563344955444e-01 -5.2663964033126831e-01</leafValues></_>
    <_>
      <internalNodes>
        0 -1 29682 -4.9478553235530853e-02</internalNodes>
      <leafValues>
        8.1557077169418335e-01 -2.3338943719863892e-01</leafValues></_>
    <_>
      <internalNodes>
        0 -1 159696 2.7564473566599190e-04</internalNodes>
      <leafValues>
        2.7035385370254517e-01 -6.5993642807006836e-01</leafValues></_>
    <_>
      <internalNodes>
        0 -1 68134 1.7061126418411732e-03</internalNodes>
      <leafValues>
        -2.0645965635776520e-01 7.4977177381515503e-01</leafValues></_>
    <_>
      <internalNodes>
        0 -1 75917 -7.6236322522163391e-02</internalNodes>
      <leafValues>
        7.8895592689514160e-01 -2.8143602609634399e-01</leafValues></_>
    <_>
      <internalNodes>
        0 -1 158012 -1.5329988673329353e-04</internalNodes>
      <leafValues>
        -8.3849132061004639e-01 2.9119750857353210e-01</leafValues></_>
    <_>
      <internalNodes>
        0 -1 161923 3.3253887668251991e-03</internalNodes>
      <leafValues>
        -2.6990413665771484e-01 8.5337990522384644e-01</leafValues></_>
    <_>
      <internalNodes>
        0 -1 19053 4.2955880053341389e-03</internalNodes>
      <leafValues>
        -2.0374935865402222e-01 5.9633803367614746e-01</leafValues></_></weakClassifiers></stage3>
</opencv_storage>
