<?xml version="1.0"?>
<opencv_storage>
<stage15>
  <maxWeakCount>11</maxWeakCount>
  <stageThreshold>-8.8904887437820435e-01</stageThreshold>
  <weakClassifiers>
    <_>
      <internalNodes>
        0 -1 162323 2.9437458579195663e-05</internalNodes>
      <leafValues>
        2.9880478978157043e-01 -5.1219511032104492e-01</leafValues></_>
    <_>
      <internalNodes>
        0 -1 26752 -4.9144215881824493e-02</internalNodes>
      <leafValues>
        5.8590978384017944e-01 -2.2676198184490204e-01</leafValues></_>
    <_>
      <internalNodes>
        0 -1 90734 -5.7182434946298599e-02</internalNodes>
      <leafValues>
        7.9425120353698730e-01 -1.0592298209667206e-01</leafValues></_>
    <_>
      <internalNodes>
        0 -1 154538 1.0192815680056810e-03</internalNodes>
      <leafValues>
        -2.5919282436370850e-01 5.6787383556365967e-01</leafValues></_>
    <_>
      <internalNodes>
        0 -1 94720 -9.9965161643922329e-04</internalNodes>
      <leafValues>
        5.3453838825225830e-01 -1.5707311034202576e-01</leafValues></_>
    <_>
      <internalNodes>
        0 -1 151063 1.9698129035532475e-03</internalNodes>
      <leafValues>
        -1.1987623572349548e-01 6.9573616981506348e-01</leafValues></_>
    <_>
      <internalNodes>
        0 -1 35839 -4.6770490007475019e-04</internalNodes>
      <leafValues>
        7.7371728420257568e-01 -8.9935287833213806e-02</leafValues></_>
    <_>
      <internalNodes>
        0 -1 109478 -3.4483917988836765e-03</internalNodes>
      <leafValues>
        8.4996819496154785e-01 -1.1477767676115036e-01</leafValues></_>
    <_>
      <internalNodes>
        0 -1 138039 1.5107561193872243e-04</internalNodes>
      <leafValues>
        -2.7061617374420166e-01 4.3928399682044983e-01</leafValues></_>
    <_>
      <internalNodes>
        0 -1 151606 2.0709810778498650e-03</internalNodes>
      <leafValues>
        -2.1393197774887085e-01 5.4331701993942261e-01</leafValues></_>
    <_>
      <internalNodes>
        0 -1 157587 2.7191763365408406e-05</internalNodes>
      <leafValues>
        2.4683815240859985e-01 -5.9451127052307129e-01</leafValues></_></weakClassifiers></stage15>
</opencv_storage>
