<?xml version="1.0"?>
<opencv_storage>
<stage5>
  <maxWeakCount>8</maxWeakCount>
  <stageThreshold>-4.8648291826248169e-01</stageThreshold>
  <weakClassifiers>
    <_>
      <internalNodes>
        0 -1 162129 -1.3828779628966004e-04</internalNodes>
      <leafValues>
        -6.4705884456634521e-01 3.5483869910240173e-01</leafValues></_>
    <_>
      <internalNodes>
        0 -1 162127 3.8898240745766088e-05</internalNodes>
      <leafValues>
        3.9850959181785583e-01 -5.1194459199905396e-01</leafValues></_>
    <_>
      <internalNodes>
        0 -1 144029 -1.1418978829169646e-05</internalNodes>
      <leafValues>
        -5.3086704015731812e-01 3.6788776516914368e-01</leafValues></_>
    <_>
      <internalNodes>
        0 -1 12131 2.3760434240102768e-02</internalNodes>
      <leafValues>
        -2.3263645172119141e-01 8.8456159830093384e-01</leafValues></_>
    <_>
      <internalNodes>
        0 -1 146068 8.9621245861053467e-03</internalNodes>
      <leafValues>
        -3.4066677093505859e-01 4.2776244878768921e-01</leafValues></_>
    <_>
      <internalNodes>
        0 -1 115033 1.2714979238808155e-03</internalNodes>
      <leafValues>
        -2.6518279314041138e-01 6.2363964319229126e-01</leafValues></_>
    <_>
      <internalNodes>
        0 -1 107552 -2.0388260483741760e-02</internalNodes>
      <leafValues>
        6.2397664785385132e-01 -2.8267717361450195e-01</leafValues></_>
    <_>
      <internalNodes>
        0 -1 44407 1.9629802554845810e-03</internalNodes>
      <leafValues>
        -2.5308749079704285e-01 5.6171101331710815e-01</leafValues></_></weakClassifiers></stage5>
</opencv_storage>
