<?xml version="1.0"?>
<opencv_storage>
<stage13>
  <maxWeakCount>11</maxWeakCount>
  <stageThreshold>-8.2258623838424683e-01</stageThreshold>
  <weakClassifiers>
    <_>
      <internalNodes>
        0 -1 1103 -3.4711998701095581e-01</internalNodes>
      <leafValues>
        -7.4074071645736694e-01 2.6164874434471130e-01</leafValues></_>
    <_>
      <internalNodes>
        0 -1 132027 3.5180919803678989e-04</internalNodes>
      <leafValues>
        -2.7036538720130920e-01 4.2544171214103699e-01</leafValues></_>
    <_>
      <internalNodes>
        0 -1 14213 -3.8471017032861710e-02</internalNodes>
      <leafValues>
        3.7338894605636597e-01 -3.7738063931465149e-01</leafValues></_>
    <_>
      <internalNodes>
        0 -1 124680 4.9862144805956632e-05</internalNodes>
      <leafValues>
        -3.1698027253150940e-01 4.6554550528526306e-01</leafValues></_>
    <_>
      <internalNodes>
        0 -1 148049 -2.2482243366539478e-03</internalNodes>
      <leafValues>
        7.5058996677398682e-01 -1.7799651622772217e-01</leafValues></_>
    <_>
      <internalNodes>
        0 -1 8169 1.0414391908852849e-05</internalNodes>
      <leafValues>
        2.0935359597206116e-01 -5.6867283582687378e-01</leafValues></_>
    <_>
      <internalNodes>
        0 -1 143632 -4.6221434604376554e-04</internalNodes>
      <leafValues>
        5.2668637037277222e-01 -2.7640196681022644e-01</leafValues></_>
    <_>
      <internalNodes>
        0 -1 161162 -1.2057674211973790e-05</internalNodes>
      <leafValues>
        -5.4657518863677979e-01 2.6403984427452087e-01</leafValues></_>
    <_>
      <internalNodes>
        0 -1 118856 -2.2776398691348732e-04</internalNodes>
      <leafValues>
        4.3832340836524963e-01 -3.6580502986907959e-01</leafValues></_>
    <_>
      <internalNodes>
        0 -1 69785 2.4076050613075495e-04</internalNodes>
      <leafValues>
        -3.0243009328842163e-01 4.0256309509277344e-01</leafValues></_>
    <_>
      <internalNodes>
        0 -1 68927 1.8183419015258551e-03</internalNodes>
      <leafValues>
        -2.2103810310363770e-01 5.3496038913726807e-01</leafValues></_></weakClassifiers></stage13>
</opencv_storage>
